digraph Tree {
node [shape=box] ;
0 [label="Density <= 0.992\nentropy = 1.836\nsamples = 3918\nvalue = [11, 112, 1162, 1789, 697, 142, 5]"] ;
1 [label="Alcohol <= 11.742\nentropy = 1.831\nsamples = 1302\nvalue = [3, 24, 157, 595, 429, 90, 4]"] ;
0 -> 1 [labeldistance=2.5, labelangle=45, headlabel="True"] ;
2 [label="Alcohol <= 10.625\nentropy = 1.75\nsamples = 633\nvalue = [1, 18, 127, 317, 155, 15, 0]"] ;
1 -> 2 ;
3 [label="Total Sulfur Dioxide <= 126.5\nentropy = 1.478\nsamples = 134\nvalue = [0, 5, 53, 68, 7, 1, 0]"] ;
2 -> 3 ;
4 [label="Total Sulfur Dioxide <= 101.5\nentropy = 1.521\nsamples = 79\nvalue = [0, 4, 18, 49, 7, 1, 0]"] ;
3 -> 4 ;
5 [label="entropy = 1.854\nsamples = 43\nvalue = [0, 4, 14, 19, 5, 1, 0]"] ;
4 -> 5 ;
6 [label="entropy = 0.803\nsamples = 36\nvalue = [0, 0, 4, 30, 2, 0, 0]"] ;
4 -> 6 ;
7 [label="Total Sulfur Dioxide <= 170.0\nentropy = 1.05\nsamples = 55\nvalue = [0, 1, 35, 19, 0, 0, 0]"] ;
3 -> 7 ;
8 [label="entropy = 0.978\nsamples = 46\nvalue = [0, 0, 27, 19, 0, 0, 0]"] ;
7 -> 8 ;
9 [label="entropy = 0.503\nsamples = 9\nvalue = [0, 1, 8, 0, 0, 0, 0]"] ;
7 -> 9 ;
10 [label="Sulphates <= 0.575\nentropy = 1.729\nsamples = 499\nvalue = [1, 13, 74, 249, 148, 14, 0]"] ;
2 -> 10 ;
11 [label="Total Sulfur Dioxide <= 129.5\nentropy = 1.721\nsamples = 402\nvalue = [1, 13, 69, 210, 101, 8, 0]"] ;
10 -> 11 ;
12 [label="entropy = 1.754\nsamples = 264\nvalue = [1, 13, 35, 144, 63, 8, 0]"] ;
11 -> 12 ;
13 [label="entropy = 1.519\nsamples = 138\nvalue = [0, 0, 34, 66, 38, 0, 0]"] ;
11 -> 13 ;
14 [label="Total Sulfur Dioxide <= 146.5\nentropy = 1.504\nsamples = 97\nvalue = [0, 0, 5, 39, 47, 6, 0]"] ;
10 -> 14 ;
15 [label="entropy = 1.261\nsamples = 83\nvalue = [0, 0, 5, 35, 43, 0, 0]"] ;
14 -> 15 ;
16 [label="entropy = 1.557\nsamples = 14\nvalue = [0, 0, 0, 4, 4, 6, 0]"] ;
14 -> 16 ;
17 [label="Free Sulfur Dioxide <= 21.5\nentropy = 1.739\nsamples = 669\nvalue = [2, 6, 30, 278, 274, 75, 4]"] ;
1 -> 17 ;
18 [label="Sulphates <= 0.325\nentropy = 1.824\nsamples = 165\nvalue = [2, 6, 13, 85, 47, 12, 0]"] ;
17 -> 18 ;
19 [label="Free Sulfur Dioxide <= 18.5\nentropy = 1.65\nsamples = 12\nvalue = [1, 0, 0, 1, 5, 5, 0]"] ;
18 -> 19 ;
20 [label="entropy = 1.371\nsamples = 5\nvalue = [1, 0, 0, 1, 3, 0, 0]"] ;
19 -> 20 ;
21 [label="entropy = 0.863\nsamples = 7\nvalue = [0, 0, 0, 0, 2, 5, 0]"] ;
19 -> 21 ;
22 [label="Alcohol <= 13.25\nentropy = 1.723\nsamples = 153\nvalue = [1, 6, 13, 84, 42, 7, 0]"] ;
18 -> 22 ;
23 [label="entropy = 1.677\nsamples = 138\nvalue = [1, 6, 11, 83, 30, 7, 0]"] ;
22 -> 23 ;
24 [label="entropy = 0.906\nsamples = 15\nvalue = [0, 0, 2, 1, 12, 0, 0]"] ;
22 -> 24 ;
25 [label="Residual Sugar <= 1.75\nentropy = 1.644\nsamples = 504\nvalue = [0, 0, 17, 193, 227, 63, 4]"] ;
17 -> 25 ;
26 [label="Volatile Acidity <= 0.305\nentropy = 1.589\nsamples = 146\nvalue = [0, 0, 10, 74, 52, 9, 1]"] ;
25 -> 26 ;
27 [label="entropy = 1.363\nsamples = 112\nvalue = [0, 0, 5, 64, 39, 4, 0]"] ;
26 -> 27 ;
28 [label="entropy = 2.013\nsamples = 34\nvalue = [0, 0, 5, 10, 13, 5, 1]"] ;
26 -> 28 ;
29 [label="Free Sulfur Dioxide <= 58.5\nentropy = 1.613\nsamples = 358\nvalue = [0, 0, 7, 119, 175, 54, 3]"] ;
25 -> 29 ;
30 [label="entropy = 1.593\nsamples = 349\nvalue = [0, 0, 7, 119, 173, 47, 3]"] ;
29 -> 30 ;
31 [label="entropy = 0.764\nsamples = 9\nvalue = [0, 0, 0, 0, 2, 7, 0]"] ;
29 -> 31 ;
32 [label="Volatile Acidity <= 0.237\nentropy = 1.69\nsamples = 2616\nvalue = [8, 88, 1005, 1194, 268, 52, 1]"] ;
0 -> 32 [labeldistance=2.5, labelangle=-45, headlabel="False"] ;
33 [label="Residual Sugar <= 12.75\nentropy = 1.642\nsamples = 921\nvalue = [2, 12, 194, 519, 165, 29, 0]"] ;
32 -> 33 ;
34 [label="Free Sulfur Dioxide <= 14.5\nentropy = 1.571\nsamples = 697\nvalue = [2, 11, 154, 407, 112, 11, 0]"] ;
33 -> 34 ;
35 [label="Total Sulfur Dioxide <= 100.5\nentropy = 1.399\nsamples = 40\nvalue = [0, 3, 23, 13, 0, 1, 0]"] ;
34 -> 35 ;
36 [label="entropy = 0.974\nsamples = 24\nvalue = [0, 0, 18, 5, 0, 1, 0]"] ;
35 -> 36 ;
37 [label="entropy = 1.477\nsamples = 16\nvalue = [0, 3, 5, 8, 0, 0, 0]"] ;
35 -> 37 ;
38 [label="Total Sulfur Dioxide <= 145.5\nentropy = 1.536\nsamples = 657\nvalue = [2, 8, 131, 394, 112, 10, 0]"] ;
34 -> 38 ;
39 [label="entropy = 1.572\nsamples = 412\nvalue = [1, 4, 73, 238, 88, 8, 0]"] ;
38 -> 39 ;
40 [label="entropy = 1.421\nsamples = 245\nvalue = [1, 4, 58, 156, 24, 2, 0]"] ;
38 -> 40 ;
41 [label="Residual Sugar <= 14.25\nentropy = 1.763\nsamples = 224\nvalue = [0, 1, 40, 112, 53, 18, 0]"] ;
33 -> 41 ;
42 [label="Alcohol <= 8.95\nentropy = 1.921\nsamples = 82\nvalue = [0, 0, 11, 25, 28, 18, 0]"] ;
41 -> 42 ;
43 [label="entropy = 1.495\nsamples = 28\nvalue = [0, 0, 3, 1, 8, 16, 0]"] ;
42 -> 43 ;
44 [label="entropy = 1.635\nsamples = 54\nvalue = [0, 0, 8, 24, 20, 2, 0]"] ;
42 -> 44 ;
45 [label="Volatile Acidity <= 0.175\nentropy = 1.393\nsamples = 142\nvalue = [0, 1, 29, 87, 25, 0, 0]"] ;
41 -> 45 ;
46 [label="entropy = 1.281\nsamples = 24\nvalue = [0, 0, 2, 8, 14, 0, 0]"] ;
45 -> 46 ;
47 [label="entropy = 1.252\nsamples = 118\nvalue = [0, 1, 27, 79, 11, 0, 0]"] ;
45 -> 47 ;
48 [label="Density <= 0.995\nentropy = 1.604\nsamples = 1695\nvalue = [6, 76, 811, 675, 103, 23, 1]"] ;
32 -> 48 ;
49 [label="Volatile Acidity <= 0.425\nentropy = 1.772\nsamples = 772\nvalue = [2, 45, 310, 325, 67, 23, 0]"] ;
48 -> 49 ;
50 [label="Chlorides <= 0.048\nentropy = 1.729\nsamples = 685\nvalue = [2, 26, 264, 307, 65, 21, 0]"] ;
49 -> 50 ;
51 [label="entropy = 1.786\nsamples = 441\nvalue = [2, 10, 145, 207, 56, 21, 0]"] ;
50 -> 51 ;
52 [label="entropy = 1.466\nsamples = 244\nvalue = [0, 16, 119, 100, 9, 0, 0]"] ;
50 -> 52 ;
53 [label="Alcohol <= 11.25\nentropy = 1.686\nsamples = 87\nvalue = [0, 19, 46, 18, 2, 2, 0]"] ;
49 -> 53 ;
54 [label="entropy = 1.384\nsamples = 77\nvalue = [0, 19, 45, 13, 0, 0, 0]"] ;
53 -> 54 ;
55 [label="entropy = 1.761\nsamples = 10\nvalue = [0, 0, 1, 5, 2, 2, 0]"] ;
53 -> 55 ;
56 [label="Alcohol <= 9.55\nentropy = 1.401\nsamples = 923\nvalue = [4, 31, 501, 350, 36, 0, 1]"] ;
48 -> 56 ;
57 [label="Density <= 0.998\nentropy = 1.276\nsamples = 615\nvalue = [2, 23, 388, 187, 15, 0, 0]"] ;
56 -> 57 ;
58 [label="entropy = 1.116\nsamples = 438\nvalue = [1, 17, 290, 130, 0, 0, 0]"] ;
57 -> 58 ;
59 [label="entropy = 1.508\nsamples = 177\nvalue = [1, 6, 98, 57, 15, 0, 0]"] ;
57 -> 59 ;
60 [label="pH <= 3.075\nentropy = 1.492\nsamples = 308\nvalue = [2, 8, 113, 163, 21, 0, 1]"] ;
56 -> 60 ;
61 [label="entropy = 1.671\nsamples = 51\nvalue = [2, 2, 10, 30, 7, 0, 0]"] ;
60 -> 61 ;
62 [label="entropy = 1.407\nsamples = 257\nvalue = [0, 6, 103, 133, 14, 0, 1]"] ;
60 -> 62 ;
}